5.743579473346471786e-03
-4.389278125017881393e-03
1.014498993754386902e-03
9.332946501672267914e-03
-1.068635145202279091e-03
4.725310951471328735e-03
4.339479282498359680e-02
1.766350865364074707e-02
-4.007509909570217133e-03
-1.066529192030429840e-02
2.902615815401077271e-02
-5.486080888658761978e-03
-1.635022461414337158e-03
-1.698549021966755390e-04
-4.195289686322212219e-03
5.911144427955150604e-03
1.291763223707675934e-02
-1.274354010820388794e-02
-8.326083421707153320e-03
1.970736309885978699e-03
3.887071041390299797e-03
-8.756702765822410583e-03
1.478119846433401108e-02
-4.314308520406484604e-03
2.174763474613428116e-03
-3.460329771041870117e-02
9.684401564300060272e-03
3.767334669828414917e-02
7.270627655088901520e-03
-3.843239042907953262e-03
7.100527174770832062e-03
-2.599511295557022095e-03
1.998588629066944122e-02
7.359914015978574753e-03
-4.538771882653236389e-02
-6.832488812506198883e-03
-1.381403300911188126e-02
2.073717117309570312e-02
3.174132481217384338e-02
1.656546955928206444e-03
-2.590902382507920265e-03
2.982149366289377213e-03
7.512603420764207840e-03
2.042774111032485962e-03
3.126110823359340429e-05
-2.149292035028338432e-03
7.387879304587841034e-05
3.689507953822612762e-03
-2.373567549511790276e-03
2.099835546687245369e-03
3.104376373812556267e-03
1.192013639956712723e-02
9.642780758440494537e-03
-1.813462004065513611e-02
-3.249525278806686401e-02
2.463794779032468796e-03
-7.936828769743442535e-03
4.248170647770166397e-03
8.082541753537952900e-04
-1.025702711194753647e-02
8.203715085983276367e-03
4.719830583781003952e-03
-6.943978369235992432e-03
-8.584694005548954010e-04
1.555137336254119873e-02
6.573967635631561279e-03
-1.629347330890595913e-03
-2.559731341898441315e-02
8.993016555905342102e-03
-4.265111405402421951e-03
5.608182866126298904e-03
7.192824967205524445e-03
1.944267749786376953e-02
1.470573130063712597e-03
-1.414572354406118393e-02
-1.054443977773189545e-02
-9.300325065851211548e-03
9.481515735387802124e-03
1.639797119423747063e-03
1.251241425052285194e-03
2.346418332308530807e-03
-3.821168839931488037e-02
-1.529942266643047333e-02
5.854562856256961823e-03
-2.848237054422497749e-03
-1.131552644073963165e-02
-3.531515225768089294e-02
2.477869391441345215e-02
1.518452726304531097e-02
1.212193258106708527e-02
-5.206010304391384125e-03
-3.130652010440826416e-03
1.838180609047412872e-02
-2.128696255385875702e-02
-2.883442444726824760e-03
1.735720783472061157e-02
-2.123045735061168671e-03
-2.505625830963253975e-03
7.915547117590904236e-03
-1.512099406681954861e-03
