-6.742572039365768433e-02
-6.866231560707092285e-02
-4.654223565012216568e-03
1.035585328936576843e-01
4.368069395422935486e-02
1.840293705463409424e-01
-1.070968508720397949e-01
-1.127839833498001099e-01
2.163019776344299316e-01
1.916703581809997559e-01
-1.267995238304138184e-01
1.191909313201904297e-01
-1.292953640222549438e-01
-2.393698245286941528e-01
-2.176567018032073975e-01
-1.138804927468299866e-01
-1.559074372053146362e-01
1.706693321466445923e-02
-1.067487299442291260e-01
-5.210318788886070251e-02
3.219659030437469482e-01
-1.274792850017547607e-01
-1.068307906389236450e-01
6.562994793057441711e-03
-1.573132351040840149e-02
-7.926744967699050903e-02
2.953616902232170105e-02
-2.608609497547149658e-01
2.128410711884498596e-02
-1.465840041637420654e-01
6.120762601494789124e-02
-9.652291238307952881e-02
4.447657242417335510e-02
-4.145819321274757385e-02
-1.861668080091476440e-01
2.826694548130035400e-01
-9.843052923679351807e-02
-4.619648680090904236e-02
-1.685413867235183716e-01
-4.743567109107971191e-02
-1.154691949486732483e-01
-3.377639874815940857e-02
-1.666700839996337891e-02
1.149806827306747437e-01
2.023523440584540367e-03
-5.314069241285324097e-02
1.994035951793193817e-02
-1.862954348325729370e-02
-1.517517026513814926e-02
-4.592951387166976929e-02
1.252031978219747543e-02
-1.210000440478324890e-01
-9.010734036564826965e-03
-2.280770689249038696e-01
-2.672699391841888428e-01
-2.447033300995826721e-02
-6.481466442346572876e-02
5.040989071130752563e-02
-2.438781112432479858e-01
-1.477491110563278198e-01
1.164768077433109283e-02
-4.062172025442123413e-02
2.085378766059875488e-01
-2.430739067494869232e-02
-1.790637224912643433e-01
-1.805208325386047363e-01
-2.171072214841842651e-01
-2.164451181888580322e-01
6.795798242092132568e-02
2.558019943535327911e-02
9.447261691093444824e-02
2.047478258609771729e-01
-1.021528169512748718e-01
-1.060815975069999695e-01
-9.237294644117355347e-02
-9.732518345117568970e-02
-2.445083297789096832e-02
1.762104406952857971e-02
-2.519107982516288757e-02
1.494108587503433228e-01
4.276687800884246826e-01
-4.897473007440567017e-02
-2.484850287437438965e-01
-1.098721846938133240e-01
2.065396457910537720e-01
3.492797166109085083e-02
-3.488481044769287109e-02
-8.030676841735839844e-02
-2.424191311001777649e-02
1.411473751068115234e-01
-9.807462245225906372e-02
5.343020707368850708e-02
-1.180528625845909119e-01
-1.732966899871826172e-01
-7.856267690658569336e-02
-1.363836228847503662e-01
-1.136378571391105652e-01
-8.719225972890853882e-02
-2.898659929633140564e-02
1.205278486013412476e-01
