1.371148377656936646e-01
-2.686959505081176758e-01
2.162612974643707275e-01
2.331794351339340210e-01
1.799624296836555004e-03
1.951067745685577393e-01
-3.708132207393646240e-01
-2.768524587154388428e-01
1.775747537612915039e-01
1.679646223783493042e-01
7.600311189889907837e-02
1.670525968074798584e-01
1.931598931550979614e-01
-2.330124676227569580e-01
-2.634638249874114990e-01
-2.595981359481811523e-01
-2.883395254611968994e-01
1.678697019815444946e-01
-2.738251388072967529e-01
-3.334827423095703125e-01
2.082411646842956543e-01
2.348748445510864258e-01
-2.767798006534576416e-01
-2.465770989656448364e-01
1.751742213964462280e-01
-3.800580501556396484e-01
1.526693999767303467e-01
-4.410706162452697754e-01
1.779986470937728882e-01
-2.543669641017913818e-01
-2.160189002752304077e-01
-2.476485222578048706e-01
-2.125869095325469971e-01
-2.697460055351257324e-01
-4.030704200267791748e-01
1.698136329650878906e-01
-2.826512455940246582e-01
-2.978137433528900146e-01
-3.912208378314971924e-01
-2.486239820718765259e-01
-2.599973678588867188e-01
-2.643167972564697266e-01
-2.845077216625213623e-01
1.850714236497879028e-01
-2.869248092174530029e-01
-2.705757915973663330e-01
1.773870140314102173e-01
1.525559276342391968e-01
-2.601386904716491699e-01
-2.506743669509887695e-01
1.604798883199691772e-01
1.829292178153991699e-01
1.535630375146865845e-01
2.555266022682189941e-01
-3.831824958324432373e-01
3.412039577960968018e-02
-2.709959447383880615e-01
1.644461303949356079e-01
-2.399555593729019165e-01
-2.400306910276412964e-01
3.833070397377014160e-02
1.513106673955917358e-01
2.510257959365844727e-01
-2.707167565822601318e-01
-3.082406818866729736e-01
1.301455944776535034e-01
1.964222341775894165e-01
1.583553254604339600e-01
-1.557164937257766724e-01
-1.629295498132705688e-01
1.565364450216293335e-01
2.589564621448516846e-01
2.678693830966949463e-01
1.165388673543930054e-01
1.147848591208457947e-01
-2.611483037471771240e-01
-2.621714472770690918e-01
2.080044299364089966e-01
1.737483143806457520e-01
1.970064491033554077e-01
1.507651358842849731e-01
-2.123636752367019653e-01
-2.672857642173767090e-01
-2.782039940357208252e-01
2.172262817621231079e-01
1.826991885900497437e-01
-3.235473930835723877e-01
-2.924626767635345459e-01
1.774380654096603394e-01
2.908974885940551758e-01
-2.717090249061584473e-01
1.356256008148193359e-01
1.105323135852813721e-01
-2.925983071327209473e-01
-2.236199378967285156e-01
-2.024121731519699097e-01
-2.878949642181396484e-01
-2.646003365516662598e-01
-1.407677829265594482e-01
1.616974771022796631e-01
