-0.533763
-1.1044
0.764924
-0.042871
-1.22523
-0.284283
0.928464
-0.448683
0.36636
0.133739
0.329361
0.255076
-0.249426
-0.256063
-0.192595
0.913002
-0.421189
0.175673
0.0252505
1.54837
-0.12593
0.615099
-0.158563
0.764921
0.373432
1.03676
-0.159549
1.15392
-0.503767
0.216728
0.337568
1.74689
-0.403388
0.676822
-0.345434
0.645366
-0.55249
0.10691
0.431516
1.22597
-0.106124
-0.202587
0.752553
-0.0868146
-0.89668
-0.295799
-0.688924
0.225914
-2.05224
-0.239597
0.0527692
-1.12237
1.26543
-1.17032
-2.76848
-0.85398
-1.14592
-0.0216013
1.4088
0.520747
-0.715618
-0.362373
0.0982879
-0.976235
-0.754892
0.633451
-1.04551
-0.229284
0.711281
-0.182454
-1.18699
-0.663368
-0.879366
-0.0431475
-0.234262
0.700278
0.810082
0.933663
0.393682
1.17335
-0.455496
-1.06546
0.499919
-0.47844
-0.919664
-1.31986
-1.77757
-0.510464
-0.583013
-0.495816
-0.844941
1.34724
0.0917011
0.368139
0.634487
-1.41669
0.743661
0.618004
0.969215
-0.748837
-0.407515
0.620253
0.235935
1.07974
1.62622
-0.569996
-0.753772
0.485903
-0.939274
-0.697554
-0.0609709
-0.769264
-0.860413
0.278843
0.323758
0.0685037
-0.588473
-0.280769
0.623977
-0.4685
-0.324944
-0.626394
-0.679149
1.07612
-0.0226365
-0.334257
1.12179
0.305559
