-0.718025
-0.232138
-0.569585
-0.409905
-0.43899
-0.499344
0.233937
-0.289833
-0.663214
-0.241045
-0.589637
1.26151
-0.537193
-0.631474
1.8365
-1.20326
-0.853007
-0.231724
-0.844813
-0.661895
-0.660108
-0.883351
-0.477488
-0.484853
-0.00866721
-0.629241
-0.731644
-0.743482
-0.525891
-0.262448
1.92996
0.19239
0.299674
-0.540941
1.94448
-0.789502
-0.469612
-0.683737
-0.367584
-0.678106
-0.213329
1.57612
-0.742149
-0.952051
0.375495
-0.548863
-0.821755
-0.677938
-0.734214
-0.684109
-0.392365
-0.787508
-0.5045
-0.515952
0.102604
-1.12439
-0.734536
-0.460616
0.55741
-1.12422
-2.69593
0.91654
0.118815
-0.134245
-0.108292
-0.518001
-0.907358
-0.898117
-0.488476
-0.709571
1.42245
0.461759
-0.630135
-0.737597
0.153526
-0.751143
-0.889587
-0.684478
-1.35342
-0.930609
0.455868
0.464389
-0.469961
0.180813
-0.493072
-0.615862
-0.226819
-0.968914
-1.07531
-0.439285
0.219201
-0.796544
-0.545702
-0.722221
-1.0234
-1.30024
-2.25863
-0.0192431
0.826038
0.0653329
-0.178244
0.548788
-0.483216
-1.24009
-0.35933
0.0562669
0.767495
-0.547706
-0.290204
0.647629
0.873729
-0.623175
-0.729989
-1.49006
-1.02505
-0.864719
-0.711427
-0.667605
-0.54345
-0.00766403
-0.603137
-0.429478
1.05154
-0.429658
-0.647968
-0.758542
-0.294575
0.865258
