0.157572
0.338093
-0.257908
-0.0377492
0.00477833
0.40922
0.295397
0.0548725
0.727131
-0.279902
0.293819
-0.0511304
0.181271
-0.229044
0.105136
0.128904
0.115378
-0.0174632
0.00864273
0.267928
-0.0606862
0.13166
0.116012
-0.0647929
0.237854
0.21787
0.0741518
0.027
0.0222474
-0.0756308
0.010575
-0.0471338
0.0736416
0.323442
-0.0933742
0.408326
0.0359825
0.403389
-0.377307
-0.214856
-0.142891
0.000848578
-0.000707675
-0.161482
0.312038
0.408184
-0.0948014
0.205
-0.252715
0.115334
0.12658
0.143241
0.0933597
0.00219393
-0.0188852
-0.142755
0.0251437
0.245151
-0.175435
-0.783162
0.0456764
-0.0820001
-0.120545
0.197517
0.308845
0.267028
-0.217105
0.510977
-0.181193
-0.484369
0.158728
0.3035
-0.256805
-0.504178
-0.309988
-0.922154
-0.0647993
-0.00415037
0.0927445
0.0983088
0.432817
0.777822
0.202671
0.0905639
-0.0924644
-0.157097
0.0179196
0.305551
0.15359
-0.275592
0.339875
-0.363525
-0.439167
0.231339
-0.439805
0.127063
0.181914
-0.793305
0.151292
-0.37563
0.215015
0.188935
-1.01224
0.368305
-0.0145558
0.00441949
-0.243042
-1.65827
0.0071092
0.0604223
-0.103621
0.224552
0.130866
-0.0247869
0.172355
0.16658
0.120766
0.123646
0.0027994
0.0727726
-0.305013
0.353723
0.180854
-0.848011
0.0337386
0.275285
0.0755291
0.174414
0.0898301
0.102273
0.383177
-0.317277
-0.367692
-0.380845
0.11287
0.374336
-0.0196087
0.0194158
0.136842
0.0542598
0.266016
0.00520949
-0.0846144
-0.10313
-0.495741
-0.0928914
-0.00654089
-0.0585244
0.0316476
-0.107046
0.30412
-0.219619
-0.297667
0.0944389
0.304104
0.202225
0.0928023
0.00137357
0.436601
0.418608
-0.241598
-0.423247
0.0148447
-0.0631703
-0.331561
0.20021
0.808392
-0.110611
-0.285559
0.129757
0.167609
-0.259217
0.127675
-0.779408
0.0102677
-0.00174911
-0.578356
0.00308948
0.132203
0.427624
0.107121
-0.0144196
-1.89714
-0.0955282
0.161679
-0.289899
-0.0219105
-0.119179
-0.203648
0.0223671
0.018011
0.116272
0.323467
0.0198404
0.344818
0.22763
-0.510714
-0.0362621
-0.121451
0.660604
0.368249
0.154383
0.0409244
0.36366
0.0865836
0.153897
-0.161179
-0.161996
-0.463909
0.539406
0.278395
-0.841336
-0.153418
0.00820388
0.0701651
0.0501206
0.674057
-0.434329
0.0244989
0.321013
-0.652584
0.236029
0.704895
0.466261
-0.20795
0.33215
0.0635013
0.249692
-0.944756
-0.431847
-0.562343
0.150292
0.291221
0.191961
-0.305818
0.0324013
0.576763
0.256049
0.134166
-0.136092
0.223254
-0.189796
0.412603
-0.101913
-0.237161
0.0758647
0.174705
0.170597
0.176473
-0.33627
0.29085
0.165618
0.382107
0.0324001
-0.177259
-0.226874
0.691527
0.862193
0.106867
0.172078
0.00358497
-0.17367
0.378441
-0.281251
-0.161862
0.00472175
0.506016
-0.16926
-0.130123
-0.0860106
-0.383376
-0.206874
0.168285
-0.620668
-0.431823
0.351052
-0.177761
0.0362835
0.0891583
0.189123
-0.195797
0.279705
0.201331
0.611797
0.00877053
0.0216541
0.186994
-0.0930266
-0.349622
0.0206687
0.517574
0.318743
-0.000884628
-0.211421
-0.401421
0.105148
0.0150322
-0.333393
0.323312
-0.327202
-0.041404
0.407287
-0.231612
-0.107968
-0.0128886
0.137482
0.306697
0.232594
0.332779
0.640831
-0.122413
-0.568965
-0.756305
-0.246113
0.217491
-0.517617
0.263486
-0.308574
-0.590217
0.129269
-0.432038
-0.296225
0.052922
0.221067
0.120201
-0.440945
0.354575
0.0192206
0.426838
-0.136541
-0.00526866
0.0858209
-0.100358
-0.340625
0.561154
0.13542
0.507183
0.18376
0.181868
-0.11294
-0.308558
0.796433
0.297492
-0.0719769
0.23776
-0.457508
0.17995
0.156061
-0.211377
0.0386766
-0.224264
0.0489866
-0.384875
-0.00293801
0.00649129
0.049328
0.173866
-0.2676
-0.0438906
-0.161869
0.0663107
-0.40673
0.529186
0.0122616
0.689675
-0.446077
0.167642
0.285329
-0.562719
0.279244
0.340827
0.158562
0.356464
0.137942
-0.303667
-0.0594122
0.36453
0.318702
-0.187617
-0.702985
0.0860536
-0.307764
-0.228573
0.00424212
-0.310478
0.00467164
-0.139785
-0.292448
0.161792
-0.0919139
0.574502
-0.0548051
-0.00973047
0.647703
0.00333532
0.152701
-0.00631271
0.303803
0.350485
-0.0851939
-0.17816
0.282798
-0.148595
-0.0320516
0.415251
0.206083
0.0251909
0.285557
0.0239601
0.603526
0.444601
0.0754339
0.256409
0.25793
-0.0359421
0.0906371
-0.425173
0.40811
-0.352385
0.240702
0.0429191
0.524644
-0.0335133
0.339888
0.00531761
0.00526959
0.473385
0.014196
-0.208635
-0.0473124
0.0012119
0.0110725
-0.187558
-0.190301
0.133367
-0.393997
-0.305433
-0.0987471
0.0134071
0.0953561
0.507022
-0.201147
-0.295547
-0.39471
0.623707
0.0675046
-0.453305
0.190528
0.170115
0.426201
0.230329
0.155114
0.579699
0.595476
0.380385
0.215205
0.0696351
-0.348135
0.638413
0.30518
0.244709
-0.296031
0.117021
-0.505151
0.518875
0.0562454
0.139614
0.448809
0.34211
0.167127
0.0781694
0.172365
-0.0321869
0.0604173
0.247714
-0.390495
0.213256
0.116069
0.0351799
0.339965
0.203196
-0.297473
0.00206155
0.394163
-0.698675
0.33349
1.18212
-0.391281
-0.395525
-0.0426083
0.109302
-0.0545067
0.455044
0.666473
-0.129702
0.325233
0.00143972
-0.235559
0.615337
-0.00585347
0.0941888
0.0829118
0.591758
-0.222059
0.285269
0.406103
0.195685
-0.0100053
0.703201
-0.0790472
0.26598
-0.116964
