0.202903
-0.299307
-0.337161
-0.330819
-0.700033
0.671696
-0.681768
0.292435
0.483151
-0.199859
-0.0763762
-0.00564147
0.0335729
0.290413
-0.252662
0.53406
-0.307264
-0.603227
-0.176313
0.560707
-0.146648
-0.0940686
-0.435349
0.470105
-0.745511
-0.62115
0.0347213
-0.304429
-0.527866
-0.815248
0.385868
-0.678901
-0.267159
-0.252404
0.375329
-0.0810131
-0.557775
0.565532
0.0735696
-0.0199897
-0.385834
-0.272923
-0.328709
-0.409815
-0.894451
-0.231755
0.118607
-0.19996
0.363191
-0.135421
-0.0135032
-0.387093
-0.432354
0.0655719
-0.383196
-0.181993
-0.699188
-0.0501571
-0.381167
-0.516632
0.125038
-0.0575866
0.581498
-0.382813
0.107704
-0.066657
0.180567
-0.183679
-0.752269
-0.22519
-0.0192618
-0.580411
0.117801
0.0182907
0.0993873
0.180919
-0.109012
0.540365
0.162682
-0.0992069
-0.211567
0.357431
0.70553
0.204026
0.244649
0.0760253
-0.0592915
-0.325752
-0.274593
-0.413104
-0.577868
0.120925
-0.762275
-0.0733278
-0.345717
0.453581
-0.0967773
-0.740444
0.275136
0.047667
-0.281091
-0.0695634
0.150407
0.0357695
-0.803818
-0.0317966
0.0191046
-0.832193
-0.200332
0.698345
-0.31004
0.181338
0.156726
0.480399
-0.110607
-0.557457
0.0565497
0.187426
-1.10798
-0.514273
0.194219
0.643518
-0.304058
0.111724
-0.0149066
-0.00177084
-0.121339
-0.356644
-0.205237
-0.571994
0.0685159
-0.908443
0.39653
0.115101
0.0210848
-0.0606376
-0.630221
-0.339775
0.0113435
-0.605039
-0.482761
-0.230713
0.04581
-0.490682
0.0214441
0.056076
-0.291773
-0.036338
-0.0656665
-0.622735
-0.0453169
-0.644422
0.250389
-0.13542
-0.586422
-0.659069
-0.0949497
0.143947
-0.3931
-0.28059
-0.125995
-0.165408
0.609921
-0.0859098
-0.190768
0.155341
-0.0672607
-0.192308
-0.348768
-0.0787724
-0.550069
-0.249509
-0.17734
-0.478235
0.074534
0.688828
0.215468
-0.448532
0.607361
0.282908
-0.22234
-0.323111
-0.314538
-0.854603
0.344847
-0.177206
0.181941
0.413963
0.766568
0.832701
-0.808585
-0.26262
-0.150544
0.0570238
-0.125018
-0.580475
-0.622614
0.0996232
-0.353668
-0.51081
-0.220089
-0.957407
-0.609723
0.309133
-0.0619862
-0.242488
-0.00906521
0.583975
-0.0223371
0.126054
-1.41953
0.511811
-0.0138382
-0.858221
0.285566
-0.450393
-0.85967
-0.137833
0.616728
-1.26038
-0.156049
-0.678388
0.0464933
-0.027141
-0.505351
0.55976
-0.50952
-0.376367
-0.584603
-0.263189
0.375685
0.44343
-0.496902
-0.614823
-0.0599967
-0.464999
-0.567079
0.404174
-0.478231
-0.449185
-0.401712
-0.33992
-0.48745
-0.164474
-0.686041
0.259076
0.0843376
0.343031
-0.497934
-0.149792
-0.1165
0.129683
0.545092
0.916522
0.311508
0.453633
