-0.376868
0.0561978
-0.129462
-0.680018
-0.572173
-0.736668
0.284862
0.173912
0.206747
-0.509259
-0.337273
-0.00424655
0.154397
0.0239103
0.154998
0.0109087
-0.0537481
-0.411419
-0.640743
-0.0766003
0.0537766
-0.5294
0.430987
0.288589
-0.278444
-0.121212
-0.137941
-0.318349
0.533322
-0.200155
0.0420953
-0.608061
-0.232391
-0.304774
0.345989
0.314948
0.126645
0.22367
0.240951
0.56504
-0.439346
0.21133
-0.0594102
-0.229304
-0.296585
-0.501081
-0.682993
-0.109543
-0.475666
-0.529162
0.127569
0.152962
-0.483918
-0.601208
0.0287296
0.279876
-0.0257087
0.0337806
0.618759
-0.558398
-0.376517
-0.261854
0.234639
-0.499994
-0.142353
-0.0677516
0.1318
0.20726
-0.450632
-0.18975
-0.246979
-0.702293
-0.144892
-0.585021
0.372915
-0.283173
-0.318697
0.252143
-0.493482
-0.833577
0.170778
0.315516
-0.0432544
0.0406154
-0.0484631
-0.721981
0.107408
0.42802
0.543853
-0.607278
0.629833
-0.229182
0.489291
0.312891
0.266076
-0.27183
-0.289232
0.41241
0.306512
0.395667
0.547865
-0.242259
-0.238052
-0.342448
-0.231666
-0.105266
0.211077
-0.137896
0.442551
-0.279421
-0.603113
-0.146254
-0.533316
-1.02915
0.0490136
0.350448
-0.668845
-0.381856
-0.257906
0.296163
0.575155
-0.32084
-0.630565
-0.425664
-0.238325
-0.756359
-0.163279
-0.259109
0.100655
-0.152378
-0.613336
0.0725596
-0.110909
-0.225725
-0.230882
0.141847
-0.523508
-0.403776
0.631517
-0.539611
-0.0461216
-0.468742
-0.56931
0.170485
0.419403
-0.371273
-0.274605
-0.00725755
-0.190862
0.339938
-0.0462555
-0.786639
-0.296843
-0.399957
0.258835
-1.04167
-0.555751
-0.481059
0.256873
-0.0234456
-0.165113
-0.279906
0.29244
-0.549955
-0.288858
0.514412
-0.730553
-0.0738197
-0.423458
-0.655556
0.398989
-0.285714
-0.83651
-0.255756
-0.203242
-0.465401
0.341361
0.771356
-0.899355
-0.606362
0.425325
-0.469409
0.00425791
-0.212433
-0.502056
-0.47633
-0.381876
0.352436
-0.298827
-0.131603
-0.289966
-0.353064
-0.159814
-0.702844
-0.249904
-1.05151
-0.500335
0.145052
-0.0363293
-0.0706251
-0.0502273
-0.905031
-0.588562
0.0812971
-0.0431239
-0.544187
-0.101348
-0.0670858
-0.543699
-0.472639
-0.1413
-0.386249
-0.595727
0.624066
-0.579831
-0.343484
-0.0663258
-0.44043
0.506916
-0.255858
-0.326633
-0.071132
-0.442174
-0.0620416
-0.414727
0.185995
-1.09288
-0.673094
0.0926485
0.292694
-0.0396322
0.27174
-0.673568
0.721459
-0.777943
-0.378322
-0.547727
-0.964965
0.429945
-0.709129
0.27235
0.438881
0.270125
0.0992334
-0.256401
0.388546
-0.455903
-0.123179
-0.0413702
0.228815
-0.356095
-0.361079
0.0843722
0.305194
0.581643
0.16169
