-0.337766
0.126157
0.199443
-0.171635
0.453317
-0.371467
0.350797
-0.615606
-0.456401
-0.651953
0.132164
-0.348957
0.394609
0.0639201
0.897286
0.0824123
0.0198095
0.318157
0.709007
-0.182304
-0.626188
0.376055
-0.0295256
0.441878
-0.19543
0.0943338
0.330506
-0.135172
0.457673
0.282095
0.0784537
-0.451072
0.776612
1.1774
0.517083
0.425214
1.14141
0.781274
0.0178534
0.196569
0.366593
0.0837301
0.017513
0.848675
0.209075
0.521927
0.147482
0.32584
0.829341
-0.131868
-0.526632
-0.611669
0.195572
-0.0730838
-0.0970327
0.203482
0.466783
-0.268358
-0.37266
0.0453005
0.0823956
-0.0994869
0.129871
-0.105163
0.338564
0.246378
-0.0177007
0.245667
-0.265804
0.320461
0.555875
-0.11362
-0.591166
1.12616
0.0174832
-0.428379
0.450443
-0.0284953
-0.414827
0.0629886
0.0589341
-0.0343132
-0.0954142
0.0188512
0.029631
0.0676726
0.176613
0.260051
0.577032
-0.182686
0.667692
0.684105
1.05709
0.301083
-0.206467
-0.29687
0.137781
-0.134444
0.0151497
-0.28347
0.66556
-0.0819322
-0.385985
0.091799
-0.135441
-1.1255
-0.0839999
-0.0277982
0.379356
0.0781134
-0.487999
0.519511
0.639614
-0.503909
-0.00534014
0.11426
0.632062
-0.348462
-0.0663394
0.17078
0.0964917
-0.0392574
-0.216111
0.615443
0.51384
-0.230311
0.305746
0.109577
0.297021
0.196495
0.0504509
0.237412
1.52182
0.484394
-0.363381
0.444013
0.934793
0.132843
-0.00404521
-0.0533953
-0.360103
-0.0782085
-0.0591775
0.261701
1.18649
0.341857
0.0726414
-1.08546
-0.384409
-0.923143
0.0738181
-0.103729
0.198294
0.0645622
0.587731
-0.143643
-0.218716
-0.502415
0.542204
0.706556
-0.04743
0.783509
0.362675
0.518206
0.25679
0.258596
0.34064
0.867176
0.284896
0.474434
0.145431
0.248681
-0.0241143
1.15843
0.183268
0.384041
0.691191
0.88077
0.107516
0.10327
0.042974
0.133344
-0.179816
-0.704641
0.971312
1.08889
0.607802
0.78336
-0.969274
0.482196
-0.788513
0.174446
0.430779
0.653833
-0.358269
0.0709748
0.0518212
0.171166
-0.193851
-0.0200442
0.134349
0.591778
-0.252237
-0.281868
-0.343966
0.0897937
0.233818
0.331164
-0.274302
0.164275
-0.6718
-0.167065
-0.361241
-0.12225
0.164806
0.179315
-0.301224
0.0152905
0.553727
0.433788
0.224942
-0.00994864
-0.124987
-1.00222
0.0527975
-0.112492
0.0659645
0.0496293
0.502608
-0.358405
0.327417
0.324594
-0.552167
-0.394129
-0.319204
1.12191
0.579997
-0.13374
0.185832
-0.0960799
0.0970842
-0.209791
-0.102744
-0.390515
-0.00558451
0.717743
0.0654116
-0.207723
-0.258446
0.40554
-0.442823
-0.250865
-0.0478069
0.134796
0.515344
-0.487509
