-1.40198
-0.329315
0.253648
-0.277422
-0.391552
0.47456
0.297732
-0.739652
-0.834306
-0.312268
1.29131
-0.236542
-0.086634
-0.0590853
0.179519
-0.175286
-0.558152
0.0198133
-0.122509
0.2692
-0.449856
-0.0759755
-0.113012
0.111522
-0.0029964
0.281848
0.0162241
-0.395565
0.350213
-0.072083
0.00958367
-0.128475
-0.0132756
0.230542
0.00077525
0.336001
0.166013
-0.244279
0.619138
0.182382
0.0360309
-0.198215
0.157367
-0.378727
-0.372736
0.266361
0.485682
-0.00387153
0.0907473
0.138824
-0.155411
-0.557682
-0.337714
-0.214003
-0.169757
-0.0133775
0.0741435
-0.609263
-0.703449
0.0180182
0.0546143
-0.283559
-0.00656722
0.370307
0.0577603
0.0544805
0.0218083
-0.0827226
-0.527678
0.352777
-0.832717
-0.90782
-0.232868
-0.603084
0.0518286
-0.497805
-0.411149
0.0654595
0.00463586
0.0111698
0.231545
-0.133308
-0.0286184
-0.0921987
0.407107
0.0183363
-0.14282
0.303791
0.466786
1.17372
0.179628
0.301747
0.0781838
0.0191607
-0.741138
0.0988574
-0.679735
0.127992
0.0615159
-0.0895509
0.281858
0.299615
-0.11291
-0.22829
-0.737263
-0.78232
-0.815216
0.0254513
-0.252772
1.00163
-0.797232
-0.0420737
-0.0429318
-0.478864
-0.436894
-0.564359
0.398198
-1.16676
-0.371024
-0.0721713
-0.122839
0.208917
0.0448151
0.272827
0.123792
0.0320783
0.246173
-0.0611395
-0.0720783
0.149173
-0.458105
0.102705
-0.249111
0.0255852
-0.409526
0.00851571
-0.501161
0.372882
-0.0287529
-0.286138
-0.329234
0.48335
-0.135078
-0.221202
-0.141298
0.298023
0.360547
-0.148689
-0.63527
-0.484156
0.316298
0.016678
-0.0712387
-0.730442
0.488966
0.115829
0.224839
-0.0312874
0.153894
0.00569772
-0.263005
0.219741
0.446586
-0.211872
0.25434
-0.23685
0.0060809
-0.333149
-0.0445302
-0.0684474
-0.417514
0.387053
-0.432705
0.330209
0.0715927
-0.157043
-0.120269
-0.013469
-0.311138
0.0145285
-0.406725
-0.0618391
0.107913
-0.812193
0.0487378
0.203734
0.339507
0.194004
-1.71132
0.575893
-0.292343
-0.0434643
-0.00220297
0.654269
-0.0373163
-0.014592
-0.455148
-0.507427
0.19917
0.123865
0.0733543
0.121917
0.345688
0.43763
-0.0119871
-0.17093
-0.0878427
0.23926
-0.717282
-0.0329306
1.11881
-0.124807
0.129937
0.207548
0.0828954
0.320049
0.670379
0.194799
-0.212804
0.161428
-0.01727
0.191819
-0.190452
-0.0482
0.221462
0.214806
0.23371
-0.596516
-0.40333
0.0880698
0.0780543
0.200776
-0.717501
-0.184418
-0.051108
0.228309
0.0467622
0.17798
-0.0127174
0.0992016
-0.444981
-0.484661
-0.459876
0.252133
0.296637
0.403552
0.840752
-0.670772
-0.50574
-0.158284
0.0799234
0.598919
0.077961
-0.0998784
0.21076
0.0179535
