-0.47479
-0.771137
-0.121194
-0.868334
-1.44554
0.00260586
0.00209049
-0.442888
-0.142768
1.53492
-0.41537
-0.477959
-0.157875
-0.0810826
-0.132721
-0.510473
0.619493
-0.176469
0.0897845
-0.521514
-0.201065
0.0667142
-0.715889
-0.11296
-0.001941
0.0315293
0.015842
-0.419562
0.111301
-0.159315
0.0114285
0.135911
0.0483224
0.0573785
-0.00273972
-0.0118949
-0.0731857
0.0205689
-0.0846027
0.0897966
0.030278
-0.814792
-0.389438
-0.160729
-0.547401
0.0458317
-0.876418
-0.0259541
0.0458756
0.0501934
-0.846842
0.219075
-0.936646
-0.434758
-0.00162209
0.153131
0.00505972
-0.164404
0.411493
-0.050861
-0.00545811
-0.493998
-0.157615
-0.154009
0.043965
-0.0125988
0.166769
-0.00170895
-0.259824
0.133291
-0.80881
0.159582
-0.122043
-0.36923
0.369121
-0.135085
-0.543674
-0.00918629
0.000358099
0.162339
-0.650889
-0.586747
0.259294
-0.383105
-0.0918943
0.0407512
-0.339809
-0.0309942
0.09895
-0.302331
0.00175119
-0.0529067
-0.0440248
-0.429861
-0.305371
-0.618267
-0.778778
-0.353461
-0.0864787
0.509972
0.0374587
0.262956
-0.568174
-0.414266
1.07475
-0.629343
1.07721
0.239846
0.474641
0.790114
1.15037
-0.0831546
-1.56964
0.290633
-0.73625
-0.110175
0.0475732
-0.0214077
-0.804324
-0.422853
-0.205239
-0.108184
-0.377971
0.063888
0.180236
-0.271274
-0.0093594
-0.558665
-1.12518
-0.0717485
0.969894
-0.178774
-0.223721
0.0812024
-0.425268
-0.188878
-0.373722
-0.485744
-0.699938
-0.900624
-0.200191
-0.153405
-0.495634
-1.20883
-1.46419
0.0824264
-0.933522
-0.114451
0.545492
-0.219383
-0.269064
-0.721715
-0.278464
-0.689893
-0.221455
0.0170005
-0.191478
-0.0354954
0.187702
-0.598983
-0.409158
0.124674
0.0656418
0.143819
0.0180964
-0.0146417
-0.538103
-0.0598072
-0.83997
-0.00304276
-0.0989345
0.0342725
-0.0819226
0.21524
0.00567823
-0.460139
-0.12509
-0.120089
-0.206903
0.0442331
-0.41635
-0.831599
0.19012
0.0896447
0.0163473
-0.263234
-0.0927202
-0.0139125
-0.82798
0.0748062
-0.0721991
-0.0887412
-1.41906
-0.55398
-0.317464
-0.304173
0.839538
-0.0896238
-0.293472
-0.459739
-0.0414774
0.136932
-0.449866
-0.324653
0.000753808
-0.392827
0.118625
0.221141
0.0060526
-1.22223
-0.0829531
-0.519267
0.264132
-0.789762
-0.0565058
0.0636597
0.299018
-0.395597
-1.32929
-0.806107
0.00237033
-0.555454
-0.284399
-0.00909827
-0.403857
-0.0857805
0.0510081
0.0448867
-1.006
-0.107436
-0.79863
-0.11758
0.997878
-0.523555
-0.603646
-0.0980166
0.0390662
-0.639425
-0.0544159
-0.512132
-1.02509
-0.522262
0.510498
-0.401761
0.0188793
-0.123073
-0.432372
0.0701354
0.180068
-0.966745
-0.628447
-0.242682
-0.553772
0.373228
-0.14563
-0.116633
