-0.2759
-0.199158
0.082876
-0.205443
0.00173482
0.188192
-0.102636
-0.445264
-0.673459
-0.225955
0.0451977
0.28437
-0.572034
0.341091
0.433134
-0.172132
-0.00450494
0.0685842
0.501789
-0.623454
-0.460875
-0.159834
-0.323714
-0.137517
0.0321238
-0.675469
-0.595818
0.225478
0.147175
-0.00987578
0.565133
-0.454373
-0.0436737
-0.0339002
-0.96135
-0.13598
-0.424543
-0.228288
-0.288805
0.120316
-0.230878
-0.26778
-0.376238
0.0261746
-0.159634
0.179735
-0.399473
-0.234223
-0.208475
-0.70459
0.338424
0.0794665
0.115681
0.216008
0.535178
-0.646047
0.346247
-0.326936
0.0332035
-0.689559
-0.458058
-0.203414
-0.0347886
-0.377564
-0.257347
-0.712982
-0.075987
-0.527099
-0.243461
-1.12642
-0.643916
-0.21298
0.0532301
0.658742
0.0837532
-0.267331
-0.322084
-0.0563251
0.821555
-0.630464
0.152423
-0.659275
-0.204677
0.384775
-0.295676
-0.405984
-0.382996
-0.381931
-0.272067
-0.0613853
-0.0378811
-0.408644
-0.693282
-0.00365447
-0.490085
-0.433857
-0.743956
0.121688
-0.0897425
-0.479539
-0.417697
-0.581627
0.318088
-0.30929
0.0674262
-0.213126
0.15161
1.12593
0.897985
0.466139
-0.143711
-0.447781
0.072765
-0.402002
-0.252418
-0.384457
-0.243743
-0.100147
0.977077
0.198485
-0.374288
-0.516825
-0.497712
0.322667
-0.303051
-0.23409
-0.304917
-0.282341
-0.100389
0.309318
-0.530186
0.229133
-0.424928
-0.0177068
0.0649246
-0.353164
-0.0246422
0.655461
0.307053
-0.299942
-0.120115
-0.298265
-0.710116
-0.488703
-0.457927
0.769427
-0.226911
-0.028047
-0.107119
-0.549162
-0.183832
-0.175149
-0.191014
-0.743147
-0.523364
0.104384
-0.567023
0.445225
-0.15509
-0.105768
0.00392916
0.227978
-0.119892
0.200916
-0.572582
-0.806385
-0.724953
-0.483072
0.124296
-0.167047
-0.434256
-0.00837541
-0.227059
-0.544854
-0.245973
-0.193767
0.0747703
-0.108854
-0.262091
-0.301323
0.326049
-0.19698
0.981831
-0.141318
-0.458168
0.550895
-0.235868
0.213292
-0.283052
-0.204087
0.0100316
-0.384397
-0.533274
0.0383829
-0.331829
0.167444
-0.00227014
-0.202362
-0.147046
0.0197987
0.500938
-0.0279741
0.0610758
-0.483034
-0.400991
-0.406043
-0.455684
-0.891867
0.271542
-0.481849
-0.389098
0.843126
-0.160675
-0.373069
-0.320352
-0.266779
-0.32493
-0.284486
0.0207461
-0.309176
-1.03363
-0.533476
-0.164609
0.331753
-0.183783
-0.494995
0.0703425
-0.199193
0.52744
0.228974
-0.145229
-0.623206
-0.779359
-0.251696
0.299138
-0.536625
-0.275252
-0.00864872
0.290397
-0.305887
-0.62803
-0.32949
-0.569533
0.196856
0.120508
-0.335721
0.201551
-1.54483
-0.206367
-0.0279883
-0.0852731
-0.345739
-0.192742
-0.252498
0.0122571
-0.219887
-0.409794
-0.200314
-0.360515
-0.663924
0.464873
-0.605958
-0.310188
-0.437001
-0.466248
0.539273
-0.120829
0.354516
-0.148463
-0.256662
-0.0125488
-0.262815
-0.292905
-0.550408
-0.568618
-0.0456214
-0.529404
-0.395587
-0.0157423
0.795583
-0.195472
-0.579951
-0.530855
0.322348
-0.170729
-0.381103
-0.442043
-0.0562144
-0.377245
0.361297
-0.453257
-0.493211
-0.245431
-0.102798
-0.213556
0.157768
-0.0443445
-0.399375
-0.547242
-0.665731
-0.33269
0.0957189
0.179727
0.0874469
-0.621293
0.994526
0.165717
-0.101652
0.0722418
-0.365745
-0.213632
-0.723933
0.491854
0.115402
-0.143537
0.0537632
-0.231146
-0.117577
-0.617441
0.208458
-0.785909
-0.102419
-0.222958
-0.229867
0.0448601
0.474932
-0.363577
-0.386423
-0.647471
-0.839989
-0.542989
0.0319688
-0.163981
-0.379148
-0.13136
-0.426971
-0.581075
-0.605851
0.33349
-0.249344
-0.2289
-0.671294
-0.101288
-0.0730629
0.329161
-0.0125865
0.014566
-0.446363
-0.38438
-0.263823
-0.141694
-0.430202
0.0445361
-0.428263
0.596514
-0.118737
0.00484444
0.471143
0.432076
-0.502177
0.00441402
-0.161641
-0.910891
0.166901
-0.163386
-0.0249321
0.126323
0.518079
-0.516218
0.105683
0.00201617
-0.554319
-0.248038
-0.354536
-0.202465
-0.222447
-0.313279
-0.189256
-0.142977
-0.253778
-0.294137
-0.0740059
-0.465597
-0.318899
-0.437584
1.17507
-0.0402026
-0.350249
0.161503
-0.300393
-0.213355
-0.185988
-1.03584
-0.407757
-0.00510818
0.141273
-0.457916
-0.248425
-0.250606
-0.159597
-0.275469
0.726405
0.337451
0.0422027
-0.580021
-0.147222
-0.0311662
0.317173
-0.757574
-0.464224
-0.291693
-0.647835
-0.942733
-0.159147
-0.126205
-0.614356
-0.0397625
-0.514036
-0.422114
0.154883
-0.0913304
-0.456561
-0.387824
0.232049
-0.162615
0.228873
0.149861
0.254418
-0.254831
-0.0849105
-0.0780425
0.752045
-0.191567
-0.315321
-0.268177
-0.172133
-0.0818776
-0.0809791
0.0572726
-1.14367
0.441592
-0.0921948
0.0915314
-0.367209
-0.756823
-0.145648
0.0313512
-0.562875
0.221906
-0.110266
-0.335009
-0.0523471
0.695992
-0.327172
-0.317333
-0.185265
0.412889
-0.22396
0.0373124
-0.53974
-0.144044
0.0569949
0.607595
0.157799
-0.371268
-0.0801004
0.307127
-0.384727
-0.127565
-0.483032
-0.120354
-0.417549
-0.191702
-0.318133
0.187527
-0.442567
-0.433093
-0.35824
0.28582
0.00545308
0.109393
-0.0172333
0.337116
-0.365613
-0.320803
0.0256609
-0.429651
-0.59589
-0.441523
0.0428458
0.104848
0.067308
-0.581429
-0.117457
-0.559791
-0.422543
0.701656
-0.0268682
-0.332362
0.0530895
1.25646
0.0296506
0.179593
-0.254486
-0.312519
0.552352
-0.0500826
-0.889832
0.01815
0.0525716
-0.115219
0.739222
