0.471773
-0.458008
-0.904885
-0.515493
-0.561248
-0.702231
0.848977
-0.724361
0.129511
0.0688652
-0.788706
-0.561601
-0.626968
0.242185
-1.22223
0.955875
-1.57891
-0.580152
-0.268193
-0.535003
-0.835363
-0.307266
-0.0464141
-0.252603
-0.720165
-0.27481
1.40063
-0.460173
0.783059
-0.109777
-0.458391
-0.412114
-0.990265
0.802052
0.186367
-0.0836341
-0.511852
0.298534
0.0545759
0.885925
0.418379
-0.337305
-0.740224
0.4748
-0.453654
0.278862
-0.373482
0.0956026
-1.44796
-0.401742
0.531155
-0.297621
1.16137
0.960763
-0.032001
-0.211667
-0.696852
-0.409523
0.698853
-0.384555
-0.882835
0.492628
-0.367925
-0.214478
0.700257
0.582252
-0.0587069
0.460761
-0.972122
0.701905
0.414725
-0.584955
-0.560976
0.0419696
0.866016
-0.732043
-7.15639e-05
-0.377098
0.864791
-0.0122473
-0.459839
-0.00892138
-0.318345
0.949782
0.504867
-0.405238
-0.642341
0.10649
-1.0742
-0.202005
-0.954509
-0.31646
1.05755
-0.116468
-1.28915
-0.039619
0.812264
0.316293
0.726262
-0.0764962
-0.25611
-0.0708486
-0.920896
-0.219613
0.282989
-0.0102001
-0.391861
-1.0166
0.157195
-0.666612
0.43706
0.668478
-0.79723
-0.0375657
-0.439024
-0.16619
0.856734
0.586218
0.0651506
-0.512027
-0.163705
-0.460115
0.309766
-0.502579
-0.673309
1.44901
-0.762043
-0.905206
