-0.161229
-0.549449
-0.456296
-0.748809
-0.767826
0.383049
-0.496698
0.44769
-0.468968
-0.750775
-0.743979
-0.275135
-0.810273
-0.883686
-0.538019
-0.606565
-0.168
-0.050509
-0.985971
-1.30396
-0.477395
-0.567559
0.227988
-4.34841
-1.24207
-0.891818
-0.0174241
-0.351385
-0.357719
0.512591
-0.393806
-1.10406
-0.330666
-1.0821
-0.773014
-1.09615
-0.0623229
-0.254093
-0.149899
0.542363
-0.825747
0.522978
-0.874741
-0.834182
-1.04159
0.370332
0.434538
-0.908726
-0.856369
-0.780158
-0.000254951
0.365521
-0.830259
0.199346
-0.832264
0.588484
-0.483141
-0.573484
-0.318221
-0.567368
-1.06914
-0.931768
-0.480337
-0.786055
-0.648558
-0.830868
0.189639
-0.808345
-0.509318
0.347665
0.0910998
0.289915
0.0718897
-0.0162709
-0.893192
-0.182569
0.0350624
-0.578293
-0.853809
0.295214
-0.604819
-0.747346
-1.15247
0.112052
-1.21379
-1.05012
0.234036
-0.994964
-0.857002
0.481564
0.153468
-0.397104
0.507409
-0.492649
-0.832779
-0.00771995
-0.308937
0.31054
-0.595976
-1.2619
-0.908957
-0.750112
0.258068
-0.779625
-0.754644
-0.626968
-0.765552
-1.36293
-0.115128
-0.788632
-0.422021
-1.02868
-1.3254
0.370141
-1.44066
-1.24581
0.277737
0.370322
0.479007
-0.0419271
-0.0312104
-0.423848
-0.56635
-0.122378
0.255719
0.191489
-0.459835
0.442557
