-0.347565
0.346894
-0.455376
-0.752608
-1.21636
0.382494
0.482058
-1.17556
-0.593293
-0.813526
-0.608027
0.0573766
-0.846062
-0.522594
-1.29306
-0.729816
-0.319462
-0.977315
-0.961198
-0.989944
-0.92429
-1.5868
-0.444859
0.0837676
0.395474
-0.266596
-1.08688
-0.375993
-0.671917
-0.277818
-0.580785
-0.69259
0.450839
-0.529608
-0.44829
0.2546
-0.797106
-0.93207
-0.512555
-0.700982
-0.850406
-0.279207
-0.825081
-1.25439
-1.22818
-0.622962
-0.324051
-0.790906
-0.442216
-1.11521
0.35202
-1.12386
-0.606264
-1.13216
-1.11795
-0.0354573
0.127089
0.588743
-1.18027
0.139895
-0.88576
-0.554079
-0.610989
0.391453
-1.25157
-0.587063
-1.08554
-0.952682
0.330599
-1.52097
-0.957331
-0.635096
-0.875582
-0.604403
0.220749
-0.374313
-0.940428
0.440705
-1.10244
-0.573541
0.507139
0.332023
-1.11907
0.49711
-1.02565
-0.154924
-0.586851
-0.34418
-1.16985
-0.965547
0.286763
0.41228
0.4494
0.378129
-0.921085
-1.31722
-0.767083
-1.18011
0.354203
-0.0881096
-0.679387
-0.843063
-0.511792
-1.52701
0.059284
-1.07364
-0.506568
-1.23331
-0.691071
0.359968
-0.824888
0.337668
-0.522865
0.46436
-0.546212
-0.503645
-1.22665
-0.935725
-1.2533
-0.766131
0.368314
-0.951484
-0.123806
-0.0588541
-0.248966
0.215312
0.184489
0.493186
