-0.175032
-0.702764
-0.0942972
-0.271994
-0.209268
1.28999
-0.277882
-0.435536
0.0882503
-0.390729
-0.846326
1.32172
-0.459913
0.300326
-0.0382674
-0.823306
-0.702133
-0.297984
0.0932254
-0.923635
0.966548
-0.328728
-0.959619
-0.105133
1.06921
1.05535
-0.422651
0.62314
-0.482519
1.11932
0.688449
-0.415744
0.959863
0.085331
1.59918
-0.392859
-0.334163
1.03416
-0.509862
-0.852426
-0.0771305
0.330729
0.401543
1.46173
1.13684
1.13895
-0.324115
-0.0159459
-0.650266
1.10003
-0.372113
0.332413
-0.520691
1.31308
-0.342229
0.752824
-0.163881
0.325082
-0.133441
-0.206772
-0.422735
-0.428836
-0.781586
-0.685479
-0.975667
-0.544911
-1.10169
-0.441075
-0.471406
-0.670874
0.576237
1.45797
-0.35526
0.850967
-1.36477
-0.628902
-0.44171
0.0246552
-0.201674
-0.505847
-0.745228
0.552201
-0.589585
0.071315
-0.353902
1.18775
1.39854
-0.544299
-0.521648
-0.674642
0.552759
0.231372
-0.649743
0.215538
1.38755
-0.46454
0.426532
0.596305
-0.348145
-0.715213
0.44691
-0.470439
1.20553
0.291987
1.10779
-0.246242
-0.504065
-0.918726
-0.478901
-0.0612878
-0.423839
1.40589
-0.392886
-0.660521
-0.29427
-0.761815
0.280159
-0.24767
-0.875455
0.00385523
0.123369
-0.723013
1.07523
-0.535195
-0.531562
1.20895
-0.0727093
0.447874
