0.044717
-0.452059
-0.568796
0.610943
-0.465867
-0.669495
1.20686
-0.420587
-0.618408
-0.522772
-1.24153
0.356057
0.510573
0.228216
0.995891
-1.05395
0.220659
-0.336905
0.776921
-0.730717
-0.0991417
-0.947814
0.474593
0.193507
-0.277257
-0.571194
-0.661455
-0.752419
-0.55064
-0.261928
0.0104417
-0.563985
-0.522307
-0.262451
-1.20845
0.339763
-0.695769
-0.531536
-0.852576
-0.637149
-0.355081
-0.210292
-0.0695126
-0.865697
-0.810275
1.0038
0.109861
-0.0702372
-0.592632
1.39792
-0.838212
0.51439
-0.585475
-0.331527
-0.621095
-0.935754
0.659973
0.709619
-1.45892
-1.0099
-0.801955
-0.386642
-0.927745
-0.110323
0.200401
-0.272382
0.530478
0.000479926
-0.556652
-0.183373
0.258755
0.213687
-0.858939
0.30893
-0.170258
-0.619706
-0.399603
-0.895748
-0.584947
-0.815564
-0.678593
-0.631239
0.670756
-0.639664
-0.31082
-0.432384
0.306773
0.148554
0.175422
-0.222479
-0.662918
-0.712268
-0.6909
-0.903974
-0.53499
0.184274
-0.0547423
-0.195261
0.633519
-0.625417
-1.39942
-1.10432
0.305626
-0.727446
-0.317028
0.223363
0.114183
-0.964547
-0.65217
-1.08339
-0.378628
-0.823088
-0.628979
-1.00498
-0.591476
0.420539
-1.16352
0.183536
-0.224853
0.0628656
-0.196015
-1.83697
-0.630083
-0.492853
0.408657
-0.529764
0.533465
0.234902
0.069626
0.227053
-0.517759
-0.138205
-0.62785
-0.766012
-0.204405
-0.261529
-1.08398
-0.057694
-0.771647
-0.573514
-0.0605324
-1.05146
0.543873
-1.15932
1.06774
-0.627137
-0.79601
0.512826
0.717902
-0.266955
-1.11551
-0.503477
-1.06009
-0.37332
-0.175191
-0.690572
0.132391
-0.787049
-0.872099
-0.728628
-0.288115
0.895691
-0.903892
-0.641562
0.408198
-0.759461
0.590837
-0.768605
-0.00270344
-1.21881
-0.459901
-0.683819
-0.446098
-0.552079
-0.337924
-0.80748
-1.71051
1.13288
-0.061196
-0.899838
-0.741709
0.251223
-1.03159
-0.222892
-0.123325
-1.34522
0.517202
-1.26115
-0.552998
-0.68367
-0.427418
0.283948
-0.502811
1.02438
-0.29471
-0.986865
-1.74215
-0.435226
0.292241
-0.889444
-0.390663
-0.722355
-0.38387
0.946054
-0.724227
-1.14412
-1.23376
-0.510862
-0.971851
-0.553364
-0.539946
-0.506854
-0.332161
-0.0436668
-0.949747
-0.64786
-0.850104
0.831409
-0.916454
0.0323505
-0.649763
0.607452
-1.08696
-0.828049
-1.27574
-0.466826
0.122665
-1.11491
-1.0167
0.0475923
0.8403
-0.108192
-1.40248
0.374095
0.300656
-0.637765
0.0677989
-0.45785
-0.0960702
-0.909813
-0.247523
0.161228
-1.07388
-0.615107
-1.14263
-0.996674
1.24578
-0.540841
0.593671
-0.619986
-0.657539
-1.03903
-0.830692
0.126695
-0.613509
-1.11107
