0.264825
0.33735
-0.692705
0.214
0.219768
-0.29833
-0.565596
0.588597
-0.237965
-0.538878
-0.202447
-0.945034
-0.401938
-0.304357
-0.710239
-0.782948
-0.427025
-0.265031
-0.125275
-0.0383616
-0.612898
-0.447734
-0.752916
-0.0541339
-0.621144
-0.0572682
-0.0477824
-0.0194803
-0.509903
0.0827663
-0.657131
-0.0232576
-0.24393
-0.385826
-0.520401
-0.653193
0.505829
-0.430467
-0.476119
-0.411507
-0.513406
-0.863709
0.146117
-0.162421
-0.298024
-0.260652
-0.379515
-0.141153
-0.174035
-0.410154
-0.123836
-0.727486
-0.773954
-0.302441
-0.538561
-0.615375
0.0569592
0.070898
-0.909534
-0.926571
-0.396376
0.365417
-0.807386
0.401509
-0.209322
-0.0166161
-0.147678
-0.123971
-0.168424
-0.274401
-0.987921
-0.205204
-0.226302
-0.661703
-0.382757
0.0997067
-0.348456
-0.214791
-0.64511
-0.0567932
0.307308
-0.0925807
0.313086
-0.313295
-0.392066
0.308241
0.0250093
-0.522428
-0.536976
-0.318891
-0.174655
-0.0568759
-0.217065
-0.710985
-0.830356
-0.0116667
-0.290157
-0.0232339
-0.690851
0.16371
-0.639925
0.272965
-0.817005
0.361378
-0.616665
-0.770417
-0.255035
-0.462905
-0.236436
0.0443049
-0.434197
-1.10643
-0.156408
-0.0957266
-0.31365
-0.146758
-0.562614
0.426396
-0.9388
-0.319126
-0.0823014
-0.394366
-0.532002
-0.153013
-0.563762
-0.434797
-0.397858
-0.172057
-0.302876
-0.194278
-0.224999
-0.365866
-0.114893
0.570068
-0.63023
-0.981679
0.016749
0.41698
-1.58845
-0.0568241
-0.398954
-0.28953
-0.743448
0.117674
-0.187076
-0.393579
0.0727113
-0.684268
-0.565225
-0.532215
0.660694
-0.034173
0.109246
0.17873
0.255471
-0.656497
0.330422
-0.282533
-0.519189
-0.426469
-0.154679
-0.282669
-0.216112
0.109255
-0.676139
0.261129
0.15651
-0.0369342
0.21658
-0.257221
-0.0368978
0.529424
-0.771101
-1.09805
-0.595325
-0.603817
-0.58015
-0.529334
-0.239097
-0.440139
0.0661467
-0.265906
-0.0776216
-0.0943913
-0.348414
-0.378399
-0.696418
0.209696
-0.524026
0.0663618
-0.0940923
-0.567886
-0.526693
-0.286789
0.34518
-0.0640785
0.192478
-0.0228818
-0.549725
-0.143692
0.142006
-0.364636
0.0718445
-0.153695
0.0855785
-0.951506
-0.477502
-0.757665
-0.682054
-0.805606
-0.973411
-0.180438
-0.247563
-0.224752
-0.386853
-0.491804
-0.784447
-0.511122
-0.866014
-0.415258
0.548249
-0.0193697
0.00878153
0.15099
-1.01303
0.0550006
-0.428669
-0.795374
-0.150625
-0.649083
-0.442839
0.027127
-0.161228
0.43136
-0.455551
0.424316
-0.592469
0.116715
-0.0556823
-0.476664
-0.853829
0.0557218
-0.661935
-0.411233
-0.763669
-0.565199
0.234829
0.0163039
-0.138578
-0.498619
-1.02163
-0.150305
0.0482285
-0.532071
-0.587582
-0.928873
