-0.147275
-0.494541
0.00479602
-0.479183
-0.159828
-0.0494338
0.0671186
-0.291125
-0.237432
-0.609721
0.0140506
0.160604
-0.365314
-0.452648
-0.347356
-0.451575
0.0910816
-0.0696584
0.385867
-0.647886
-0.240694
-0.377667
-0.268948
-0.360378
0.440206
-0.367529
-0.125261
-0.515252
-0.477929
-0.631222
-0.0647485
-0.227934
0.00556432
0.363922
-0.128478
0.170191
0.0673034
-0.089358
-0.492335
-0.164992
-0.24186
-0.275398
-0.685979
0.0654601
0.405515
-0.586181
-0.368982
-0.325825
-0.00967534
0.363398
0.0711635
0.263642
-0.221957
-0.466085
0.289592
-0.575928
-0.201166
-0.476642
0.0619882
-0.240337
-0.303227
-0.411589
-0.291869
-0.142193
-0.0325573
0.131978
-0.135973
-0.394325
-0.21017
-0.667975
-0.303626
-0.324721
-0.75166
-0.138525
-0.25686
-0.330279
0.00694678
0.305663
0.118881
-0.218115
-0.454286
0.025908
-0.300243
-0.293847
-0.350117
-0.358415
-0.340427
-0.249459
-0.585681
-0.248038
-0.0760286
-0.172692
-0.215192
-0.445479
-0.524299
-0.540063
-0.441501
-0.0191487
-0.0705024
0.00665361
3.75995e-05
-0.12646
-0.274043
-0.287136
-0.24766
-0.386384
-0.300751
-0.0579441
-0.581243
-0.187568
-0.451692
0.29229
0.0710677
-0.531846
-0.302707
-0.134181
-0.468802
0.0558192
-0.558894
-0.411876
0.203709
0.0243262
0.0787442
-0.329745
-0.0614951
-0.52001
-0.727498
0.182422
-0.215439
0.227724
-0.243421
0.179348
0.117741
-0.357308
-0.270754
0.0622798
-0.498999
-0.0161948
-0.327886
-0.161126
-0.435822
0.0614513
-0.344516
-0.642732
0.288459
-0.246487
-0.258365
-0.277019
-0.276146
0.104597
-0.398286
-0.632842
-0.0563227
-0.41788
-0.497025
-0.151319
0.434128
-0.635866
-1.27835
-0.0932801
-0.408178
-0.549484
0.467425
-0.458
-0.423903
-0.72085
-0.465026
-0.785027
-0.457992
-0.608369
0.129916
-0.734476
-0.0839059
-0.608766
-0.00373677
-0.0137553
-0.440915
-0.412874
0.128928
0.0351327
-0.446634
-0.237862
-0.403615
-0.0641056
-0.385835
-0.225698
-0.250796
-0.330883
-0.052187
0.436847
0.00967523
-0.389151
-0.474031
-0.420718
-0.205769
-0.0315438
-0.427549
-0.355361
0.250267
0.427023
-0.269209
-0.132898
-0.494024
-0.187563
-0.114945
-0.46251
-0.499194
-0.110742
-0.603812
-0.000312543
-0.219413
-0.310562
0.155567
-0.437386
0.146108
-0.379822
-0.0643258
-0.27001
0.222627
-0.495499
-0.497401
0.0467701
-0.0334798
0.0131863
0.0668429
-0.318751
0.1507
-0.0733833
-0.094267
-0.404734
-0.456861
-0.104315
0.652793
-0.428159
0.220763
-0.652291
-0.410314
-0.546673
-0.38015
-0.0551003
-0.426098
-0.201223
-0.626585
-0.248836
-0.176743
0.473018
-0.171087
-0.114283
-0.400288
0.221947
-0.659182
-0.0907035
-0.268022
-0.66844
-0.306961
-0.0043561
0.20075
-0.481261
0.151498
-0.243475
-0.316529
-0.435351
0.0336086
0.138044
-0.312993
-0.593937
-0.469518
0.20715
-0.297645
0.0357575
-0.495531
-0.197301
-0.506039
0.328652
-0.0575544
-0.571738
-0.444963
-0.233722
-0.143053
-0.420268
0.275157
0.10142
-0.185747
-0.690375
-0.353439
-0.013169
-0.407812
-0.198473
-0.412716
-0.540778
-0.388979
-0.148627
-0.391263
-0.0785517
-0.378176
0.0531298
-0.626429
0.0422258
-0.655219
-0.415208
0.270743
0.0358702
0.0489499
-0.632152
-0.31843
0.0501013
-0.357099
-0.15313
-0.299535
-0.453318
-0.147521
0.140859
-0.525522
0.145517
0.323711
0.226832
-0.0650563
-0.124599
-0.0861271
0.162077
0.0307725
-0.238492
-0.343938
0.431752
-0.305906
-0.597346
-0.366947
-0.759737
-0.426542
0.349639
-0.423012
-0.297347
-0.693845
-0.215426
-0.505206
-0.10779
-0.560862
0.11131
0.0330268
-0.549179
-0.245618
-0.204129
-0.609744
-0.392095
-0.363175
-0.45878
-0.394691
0.687489
-0.0606268
0.511508
-0.198922
-0.50821
-0.342839
0.229355
-0.0772004
-0.183527
-0.419549
-0.446554
-0.0762024
0.461755
0.187383
-0.528725
0.0168185
-0.31745
-0.126847
0.0491177
-0.419531
-0.220082
-0.424944
-0.506151
-0.492877
0.494123
-0.391531
-0.62839
0.0668823
-0.106127
-0.558737
-0.490616
-0.534664
0.0680971
-0.152223
-0.142614
-0.344863
-0.347236
-0.376409
-0.513082
-0.361927
0.232322
-0.491313
-0.234067
-0.394433
0.0705345
0.0196252
-0.521702
0.0961445
-0.114132
-0.420835
0.37349
0.0953576
-0.366357
-0.268739
-0.177787
-0.219836
-0.302216
-0.0206921
0.128088
-0.180067
0.161519
-0.0976053
-0.669408
-0.333639
-0.29656
-0.134383
-0.419577
0.190132
-0.0194438
-0.011421
-0.518173
0.0879609
0.195914
-0.805581
-0.244226
0.0334835
-0.041806
0.13836
-0.353928
0.120371
-0.0553835
0.104455
0.503596
-0.770242
-0.0188176
-0.00304786
-0.0365786
0.210756
-0.902305
-0.628842
-0.445292
-0.123619
-0.0663145
0.24103
0.137633
-0.641785
0.0176165
-0.0388696
-0.260355
-0.660135
-0.505645
-0.0379522
0.221902
-0.503479
-0.435472
-0.465429
-0.146888
-0.117694
-0.411751
0.0584147
0.039429
-0.472873
-0.0774034
0.173946
0.152074
0.156306
-0.643829
-0.690415
-0.456821
0.129609
-0.0688868
-0.403461
-0.695783
-0.0743506
-0.165091
-0.271336
-0.279864
1.24993
-0.136939
-0.573715
-0.751298
-0.425565
0.0279183
0.213536
-0.054857
-0.380915
-0.205981
0.0238551
-0.113166
0.259805
-0.155779
-0.478363
-0.242677
-0.469898
0.0413944
0.183383
-0.791065
-0.317415
0.239751
-0.0194993
-0.510148
0.160932
-0.0428416
0.111757
0.0789006
-0.0986343
-0.189824
-0.0594481
0.11767
-0.568449
-0.26661
-0.154487
-0.0367693
-0.300474
-0.124032
0.153947
-0.567111
0.210389
-0.596173
-0.267199
-0.0379677
-0.644354
-0.194808
-0.151798
0.205251
0.182914
-0.458006
-0.304038
-0.593933
0.143308
-0.455409
-0.376767
-0.0255878
-0.0370692
0.162581
-0.338263
-0.205144
-0.344169
-0.00403328
-0.518224
0.177967
0.1176
-0.518397
0.0493769
-0.566845
-0.101153
-0.335954
0.370605
-0.526272
-0.319803
-0.544777
0.0905219
0.229504
-0.353389
-0.677277
-0.532837
-0.385898
0.179876
0.0869511
-0.563087
-0.187398
-0.196504
-0.203754
-0.107526
-0.00494519
0.257214
0.243829
-0.41762
-0.0143848
-0.560285
-0.218352
-0.0815892
-0.128466
-0.1444
-0.446767
0.264515
0.164384
-0.0234373
-0.787992
-0.0226317
-0.495191
0.283744
0.166571
-0.058284
-0.22028
-0.00295292
0.221681
-0.388177
-0.179284
-0.213019
-0.198451
-0.179182
-0.238938
-0.115821
0.216704
-0.13781
-0.0348528
-0.175057
-0.384399
-0.527958
-0.405429
-0.00899829
-0.0229151
-0.424023
0.00229419
-1.00578
-0.148051
-0.0619443
0.0657603
-0.101374
0.143961
-0.339997
0.234719
0.0341199
0.0585234
-0.121999
0.0532297
-0.604057
0.152574
-0.148744
-0.0520277
-0.107201
-0.627463
-0.0757743
-0.579188
-0.00763116
0.154929
-0.216907
-0.590834
-0.132844
-0.242765
0.124661
-1.01283
-0.70084
-0.186254
-0.475001
0.133041
-0.0417617
-1.63604
-0.081256
-0.314761
-0.10039
0.00644384
0.0813892
0.235193
-0.335219
-0.512195
-0.482984
-0.38918
0.24281
-0.668352
-0.0147453
0.0556598
-0.278318
-0.119607
-0.335731
-0.3905
-0.478092
-0.596038
-0.076891
0.0276289
-0.478546
0.0289628
-0.206669
-0.0833263
-0.585582
-0.645861
-0.460953
0.287626
0.0201431
-0.346667
-0.553442
-0.0933807
0.0942246
-0.126674
-0.37884
0.216026
-0.524993
-0.564222
-0.80448
0.254826
-0.675038
0.121513
0.378109
-0.136712
-0.0394425
0.119729
-0.519833
-0.295343
0.132127
-0.505838
-0.136301
-0.393623
-0.196773
-0.515377
0.258142
-0.565315
0.339482
-0.0983532
-0.112537
0.156353
0.254739
0.0733909
0.274234
-0.495586
0.0702907
0.0594437
-0.213302
0.161745
-0.320201
0.15444
0.387735
-0.132878
-0.60732
0.0378934
-0.391873
-0.349218
-0.647269
-0.457389
-0.278546
-0.453469
-0.625545
-0.163241
-0.177542
-0.276302
0.121181
-0.153348
0.199242
0.239802
-0.159111
-0.109839
0.00755864
-0.108386
-0.308718
0.109181
0.353652
-0.644783
-0.896041
-0.592506
0.268091
0.0592389
-0.102093
-0.0202588
-0.773532
-0.312169
-0.497361
-0.700792
-0.604728
0.145602
0.0182048
0.0241975
-0.334165
-0.172953
-0.27714
-0.158066
-0.0191197
0.189917
-0.0489873
-0.4004
-0.293727
0.0741169
-0.148222
-0.0376125
-0.790559
0.135627
-0.327434
-0.343488
0.0356444
-0.560603
0.168884
0.0324906
-0.0363214
-0.0412071
0.00984531
0.0728465
0.189303
-0.646105
-0.26055
0.0274566
0.0164944
0.0308595
-0.270205
0.140155
-0.154614
-0.468809
-0.364605
-0.43457
-0.223861
-0.125946
-0.59824
-0.297566
0.0314778
-0.270082
-0.53388
-0.0366683
-0.185229
-0.573372
0.00262095
-0.222708
0.184546
-0.279057
-0.439625
-0.610166
0.0770767
-0.279087
-0.396819
0.246722
-0.265962
-0.0808385
-0.350799
-0.548674
0.0927066
-0.145336
-0.0121853
-0.0422658
-0.542889
-0.142179
-0.378725
0.251437
-0.317837
-0.397675
-0.11576
-0.0120889
-0.0375501
0.125627
-0.318864
-0.437486
-0.0987093
-0.578938
0.13647
0.129222
-0.233452
-0.606925
-0.30607
0.00503996
-0.226064
-0.42436
-0.511551
-0.342218
-0.0646856
-0.297628
-0.311971
0.227104
-0.596226
-0.558998
0.390878
-0.704333
-0.519107
-0.380661
-0.601371
0.0927817
-0.427332
-0.0620848
-0.391574
0.0277213
0.155003
0.080993
-0.566787
0.0857969
0.144382
0.154099
0.107235
-0.458692
-0.451947
-0.251033
-0.62587
-0.171957
-0.324743
-0.115231
0.129732
-0.238694
-0.271403
-0.282531
0.0266902
0.402423
-0.587041
-0.367507
-0.103824
-0.119772
-0.128494
-0.11994
-0.176848
-0.202224
0.162037
-0.338297
-0.10486
-0.163657
-0.534656
0.141029
-0.594578
-0.495409
-0.161974
0.122352
-0.0661249
-0.216053
0.20457
-0.526983
0.25298
-0.119922
-0.159501
-0.71802
-0.494415
0.228327
-0.0478088
0.113482
-0.316704
-0.510249
0.0544824
-0.455822
-0.302476
-0.523485
0.063384
0.045435
-0.518758
-0.121837
-0.318732
-0.219699
0.141435
0.10143
-0.182146
-0.0408787
0.228631
-0.644526
0.313511
-0.320987
0.234203
-0.34522
-0.366261
-0.0960049
-0.441238
-0.390721
-0.390143
-0.0898789
-0.378882
-0.381835
0.131925
-0.398577
0.223931
-0.302276
-0.473307
0.16556
0.254817
-0.288338
-0.230069
0.526865
0.267922
0.369444
-0.332883
-0.542151
-0.0270842
0.0302893
-0.234875
0.148671
-0.0866375
-0.169148
0.141677
-0.944706
-0.383982
-0.140053
-0.192992
0.0140753
-0.822326
-0.36738
0.239394
0.260247
-0.368947
-0.317215
-0.522997
0.170269
0.0682721
-0.484231
-0.255746
0.0555142
-0.272209
-0.714842
-0.537793
-0.493882
-0.691462
-0.417426
-0.368743
-0.586781
-0.0830067
0.0599996
0.173448
-0.113836
0.268882
-0.300138
0.536169
-0.0627281
-0.0807293
-0.653241
-0.301301
-0.453248
-0.689589
-0.490857
-0.320146
-0.00285741
0.227399
-0.325065
0.0253444
-0.108698
-0.399746
0.214845
-0.0361518
0.0280334
-0.688341
-0.207991
-0.573081
0.283092
-0.0733204
-0.151169
-0.19171
-0.594569
0.389426
-0.443132
-0.64866
0.0127649
0.206042
-0.622938
-0.380305
0.205686
-0.19387
-0.609608
-0.0517262
-0.0408574
-0.0738509
0.0792891
